digraph Tree {
node [shape=box, style="filled, rounded", color="black", fontname=helvetica] ;
edge [fontname=helvetica] ;
0 [label="dist_ball <= 74.8876\ngini = 0.519\nsamples = 17\nvalue = [11, 4, 1, 1]\nclass = Def", fillcolor="#e5813989"] ;
1 [label="dist_ami_devant <= 38.4528\ngini = 0.6562\nsamples = 8\nvalue = [2, 4, 1, 1]\nclass = Drible", fillcolor="#47e53955"] ;
0 -> 1 [labeldistance=2.5, labelangle=45, headlabel="True"] ;
2 [label="dist_ami_devant <= 28.9543\ngini = 0.625\nsamples = 4\nvalue = [2, 0, 1, 1]\nclass = Def", fillcolor="#e5813955"] ;
1 -> 2 ;
3 [label="gini = 0.0\nsamples = 2\nvalue = [2, 0, 0, 0]\nclass = Def", fillcolor="#e58139ff"] ;
2 -> 3 ;
4 [label="gini = 0.5\nsamples = 2\nvalue = [0, 0, 1, 1]\nclass = Pass", fillcolor="#399de500"] ;
2 -> 4 ;
5 [label="gini = 0.0\nsamples = 4\nvalue = [0, 4, 0, 0]\nclass = Drible", fillcolor="#47e539ff"] ;
1 -> 5 ;
6 [label="gini = 0.0\nsamples = 9\nvalue = [9, 0, 0, 0]\nclass = Def", fillcolor="#e58139ff"] ;
0 -> 6 [labeldistance=2.5, labelangle=-45, headlabel="False"] ;
}