digraph Tree {
node [shape=box, style="filled, rounded", color="black", fontname=helvetica] ;
edge [fontname=helvetica] ;
0 [label="dball <= 34.691\ngini = 0.5\nsamples = 6\nvalue = [3, 3]\nclass = Def", fillcolor="#e5813900"] ;
1 [label="dballbut <= 46.838\ngini = 0.375\nsamples = 4\nvalue = [3, 1]\nclass = Def", fillcolor="#e58139aa"] ;
0 -> 1 [labeldistance=2.5, labelangle=45, headlabel="True"] ;
2 [label="gini = 0.0\nsamples = 2\nvalue = [2, 0]\nclass = Def", fillcolor="#e58139ff"] ;
1 -> 2 ;
3 [label="gini = 0.5\nsamples = 2\nvalue = [1, 1]\nclass = Def", fillcolor="#e5813900"] ;
1 -> 3 ;
4 [label="gini = 0.0\nsamples = 2\nvalue = [0, 2]\nclass = Shoot", fillcolor="#399de5ff"] ;
0 -> 4 [labeldistance=2.5, labelangle=-45, headlabel="False"] ;
}